1413393891.055760 -0.001236 0.023448 0.080220 
1413393891.155761 -0.001239 0.023461 0.080229 
1413393891.455760 -0.001256 0.023431 0.080224 
1413393891.605761 -0.001252 0.023442 0.080215 
1413393891.755760 -0.001246 0.023428 0.080214 
1413393891.905761 -0.001260 0.023425 0.080210 
1413393892.055760 -0.001260 0.023396 0.080186 
1413393892.255760 -0.001254 0.023379 0.080170 
1413393892.405761 -0.001251 0.023380 0.080153 
1413393892.555760 -0.001252 0.023378 0.080144 
1413393892.705760 -0.001248 0.023394 0.080144 
1413393892.855761 -0.001244 0.023407 0.080149 
1413393893.005760 -0.001245 0.023407 0.080148 
1413393893.155761 -0.001242 0.023403 0.080150 
1413393893.305760 -0.001240 0.023401 0.080151 
1413393893.455760 -0.001243 0.023402 0.080149 
1413393893.655761 -0.001242 0.023402 0.080156 
1413393893.855761 -0.001238 0.023399 0.080157 
1413393894.055760 -0.001242 0.023392 0.080149 
1413393894.255760 -0.001245 0.023401 0.080144 
1413393894.505760 -0.001245 0.023399 0.080151 
1413393894.805760 -0.001253 0.023390 0.080154 
1413393895.055760 -0.001250 0.023402 0.080159 
1413393895.305760 -0.001259 0.023402 0.080174 
1413393895.555760 -0.001263 0.023402 0.080175 
1413393895.755760 -0.001259 0.023402 0.080183 
1413393896.005760 -0.001263 0.023394 0.080196 
1413393896.205760 -0.001263 0.023388 0.080198 
1413393896.505760 -0.001249 0.023377 0.080194 
1413393896.805760 -0.001253 0.023375 0.080180 
1413393897.055760 -0.001252 0.023386 0.080186 
1413393897.355761 -0.001253 0.023365 0.080184 
1413393897.605761 -0.001247 0.023372 0.080186 
1413393897.855761 -0.001241 0.023381 0.080160 
1413393898.105761 -0.001232 0.023371 0.080168 
1413393898.355761 -0.001244 0.023369 0.080171 
1413393898.605761 -0.001249 0.023368 0.080172 
1413393898.805760 -0.001240 0.023380 0.080169 
1413393899.055760 -0.001229 0.023382 0.080160 
1413393899.305760 -0.001236 0.023370 0.080156 
1413393899.555760 -0.001258 0.023358 0.080155 
1413393899.655761 -0.001255 0.023363 0.080149 
1413393899.755760 -0.001252 0.023364 0.080147 
1413393899.855761 -0.001284 0.023363 0.080134 
1413393900.005760 -0.001263 0.023368 0.080116 
1413393900.305760 -0.001251 0.023377 0.080124 
1413393900.605761 -0.001265 0.023376 0.080122 
1413393900.905761 -0.001248 0.023381 0.080111 
1413393901.205760 -0.001247 0.023322 0.080109 
1413393901.555760 -0.001236 0.023325 0.080101 
1413393901.855761 -0.001232 0.023311 0.080107 
1413393902.155761 -0.001234 0.023309 0.080106 
1413393902.505760 -0.001222 0.023305 0.080107 
1413393902.805760 -0.001225 0.023318 0.080112 
1413393903.155761 -0.001247 0.023309 0.080112 
1413393903.505760 -0.001237 0.023297 0.080112 
1413393903.855761 -0.001234 0.023298 0.080110 
1413393904.055760 -0.001222 0.023309 0.080107 
1413393904.305760 -0.001217 0.023312 0.080107 
1413393904.555760 -0.001215 0.023319 0.080106 
1413393904.805760 -0.001211 0.023336 0.080108 
1413393905.105761 -0.001212 0.023330 0.080107 
1413393905.355761 -0.001218 0.023335 0.080107 
1413393905.555760 -0.001218 0.023337 0.080106 
1413393905.705760 -0.001224 0.023356 0.080109 
1413393905.855761 -0.001228 0.023354 0.080110 
1413393906.005760 -0.001230 0.023361 0.080111 
1413393906.105761 -0.001229 0.023357 0.080111 
1413393906.255760 -0.001227 0.023363 0.080113 
